-7.002854860515678181e-02 -1.882406127021785336e+00 4.737352563018623619e-01 -2.007050928562856384e+00 5.862118783054180993e-01 -9.226373353842692859e-01 -1.996413894797355759e+00 2.823020873678889764e+00 -5.321898083180194305e+00 7.259615080934734843e-01
1.031840825186474353e+00 1.433923946480810452e+00 -5.694802145451761666e-01 -1.377722315553229770e-01 -3.506620230501288127e+00 8.646138903121999286e-01 -4.364143691885666421e+00 9.309695003580996664e-01 -9.050832761371695179e-02 -1.070580212371772255e+00
7.921643184831451689e-01 -1.970758272352951090e+00 -8.302540732291594505e-01 -1.287346006481517591e-01 -6.407855279373366741e-01 1.102983261766354417e+00 -3.375847305110588614e-01 2.216063307926021686e+00 -3.685459683451208779e+00 -1.770663314752410677e+00
6.635248307864852757e-01 9.525076952704101263e-01 -3.584677146452564411e+00 -9.068859661879420386e+00 5.857794035690342405e-01 7.799659081211759437e-01 8.917566289370723598e-02 -2.018512523269331727e+00 2.748871935760725638e+00 -7.114492871058903933e-01
-6.554037795545477607e-01 1.699269732066006622e+00 -1.058936549671441352e+00 -4.644857940869176471e-01 -4.344793001714549602e-02 -3.147890083605140443e+00 -9.451807733292681979e-01 -2.122281163915006541e+00 -2.545568975733116801e+00 -5.147034472857868748e-01
1.247828489557494258e+00 -4.292286256549657786e+00 1.048236454201721513e+00 8.357474001274359798e-01 7.203733767941425947e-01 -8.914553709076347587e+00 -9.258154245945705796e+00 1.251208317084335775e+00 8.021845745028247876e+00 -7.473328878385514240e-02
1.117007181953837691e-01 4.673024386214995607e-01 9.928908376596976559e-01 1.646468401751407740e+00 1.084774026114978751e+00 2.069183469045270396e+00 -2.485476564052291060e-01 -2.378980305283669161e-01 -2.818152165631961026e+00 -8.822567311586230199e-01
-9.226521784186619612e+00 -3.323187057392571475e-01 3.323053533182883101e-01 -6.515132609451775858e-01 9.954295655643252694e-01 -8.504986862190345998e-02 3.551495301472190058e-01 -1.262383779568233999e+00 7.920305080263396746e+00 -1.043988966853613087e+00
-6.359639681634799979e-01 -2.873904912190204386e-01 2.553162342244201355e+00 2.250839192742439820e-01 8.490296026277147634e-01 -4.726586130174708633e-01 9.710274159537101157e-01 -2.556352335422915623e+00 -4.222212179133205900e+00 -2.035655360556641202e+00
1.371529923554052122e+00 -1.168032716524241454e+00 3.478774529121251291e+00 -4.346339815518533989e+00 -1.790276384742663263e+00 -8.773581940537908963e+00 8.707281929196820869e+00 -1.373101327325291665e+00 8.407266545936117552e+00 7.907720602479156868e-01
-9.508402261678497447e-02 3.525753202648637341e+00 -1.989496580032455109e+00 -9.785188061264628034e-01 -6.576517859364137131e-01 -1.642102925284185666e+00 -1.941549146868924547e+00 1.790196923810733365e+00 -4.169630858328534195e+00 -6.559078248535956668e-01
1.391014215987592673e+00 -1.146610016963139078e-01 -6.503443533701332768e+00 4.980972822617128593e+00 7.435343368046493095e-01 1.139597574177936501e+00 2.665254459647757312e-01 -2.149183933292760695e+00 5.410996482342747882e+00 1.139783097359780978e-01
9.825491452916471635e-01 -4.369080216531934235e-01 9.462406964083764915e-01 1.898386797518579749e+00 -2.984400705771158346e+00 1.938334997416856442e+00 1.827105993324769306e+00 -1.801547022875943149e+00 1.249439533085716203e+00 -1.679053136069913910e+00
-9.054654206614762835e-01 -1.428738008903854828e+00 -4.229917999813258001e-01 -4.450551514190067004e-01 -4.053935881290177790e+00 -1.505062364722471235e+00 -6.200772110973078455e-01 -1.253248263358318848e+00 -1.187370693253118059e+00 -3.099464517759633164e+00
8.491220121375958607e-01 -2.479236856766338537e+00 2.319588303463328283e-01 1.607004256044254897e-01 4.264049747471649332e-01 1.553332625261537488e-02 1.651347049028977776e-01 -2.948391367802152274e+00 -4.966522450295022040e+00 6.103691696513916520e-01
