-4.861990419379173534e-01 -3.023211918560346323e+00 -7.129567295637538604e-02 -3.428561040586453057e-01 3.565832841299435008e-01 2.182273513374594742e+00 7.498217564412010816e-01 1.865565589899824239e+00 -6.026039088667904053e+00 -1.835958879244140141e+00
2.462549872406114559e-01 -6.287538788073525620e-01 -1.233033149190167155e+00 -7.848404932786082755e-01 -3.876755588835580912e+00 8.654854053690542726e-01 -2.917469588475468889e+00 -1.656865889112850931e+00 -1.378743941286056263e+00 8.761216979223577228e-01
1.540854516028370647e+00 -1.227747133378917166e+00 -1.328002513824038999e+00 -4.334911989245429087e-01 -9.459334032313065910e-01 -3.273916319368865291e-01 -1.040705318802842907e-02 2.224686134796224124e+00 -5.141413817637491945e+00 -3.326685354548960749e+00
2.436486573885878471e-01 8.211144457637997718e-01 -4.679489995418317783e+00 -1.016731108230571934e+01 9.002407370788527707e-01 7.395632032439901637e-01 4.432721729276448142e-01 -4.511852578332502972e+00 2.797421045316382582e+00 9.111453163990489656e+00
7.613116066333790455e-01 3.213187127105019414e+00 6.475200938542620133e-01 -9.930222578193956817e-01 -1.091012922771651850e+00 -9.178059040567291271e-01 -4.697651267309620182e-02 -1.558089956671933063e+00 -3.530004307398979080e+00 -3.557556066487909341e+00
1.201281372404893188e+00 -3.626060153415116449e+00 -3.369990686437184663e-02 8.948699078055994960e-01 1.071408919575064678e+00 -1.005833515874516060e+01 -1.039946479694713588e+01 1.414473592722883533e+00 9.168365787695099911e+00 9.202955713420037043e+00
2.217877038814607404e-01 7.611505494953592077e-01 2.709156740069314395e+00 1.590133421703539662e+00 -9.441409287333635270e-02 5.830182462511274144e-01 7.696537927304694104e-01 -2.778556618444421034e+00 -5.342017284329548588e+00 -5.303420918735345380e-01
-1.038145433140173246e+01 -4.183126510683070065e-01 -1.043683879249036606e-01 -2.043688288827618660e+00 -3.756464047214207458e-01 -1.351281349645627738e+00 2.655401018741018193e-01 6.767696682798729491e-01 9.067669309394128518e+00 -2.133373970855047208e+00
8.904432176927988829e-01 -1.353341014494852335e+00 1.781079449922109870e+00 -3.243072847020873062e-01 1.721272155550253480e+00 4.182338534096678995e-01 1.045120867904355752e-02 -2.064568516374420071e+00 -4.218123005169503337e+00 -1.693318029824617987e+00
2.331700955155604493e+00 -9.574779558071698782e-01 4.306254364436748361e+00 -5.972347914288690163e+00 -1.699198300244223248e+00 -9.907879414927483808e+00 9.820945440097560208e+00 -1.140569796192896668e+00 9.536754853949274136e+00 -1.170325650559837882e+01
-1.290928643618529881e+00 2.406750491251792745e+00 -2.060399518991848034e+00 -1.911521122558739183e+00 2.465941808807998181e-01 -2.225648427823512687e+00 -2.161470707235722433e+00 2.052907998317269556e+00 -3.516013232329356697e+00 -3.313596766581845987e+00
1.296346148376497753e+00 -1.713111201989001575e+00 -6.873671371642636529e+00 4.466580569850722604e+00 5.546864946012751707e-01 8.757633111408262838e-01 -1.239231329568279416e-01 -7.635416884844037355e-01 6.505781090417808166e+00 -4.316437234299556280e+00
-1.177647592533427739e-01 7.463739405064758747e-01 8.627462857422600884e-01 2.846731534994730861e+00 -3.114867912516625204e+00 9.990699784249219562e-01 1.426074474668690695e-01 -1.905618920465585564e+00 3.037051412072816259e+00 6.845592970955926226e+00
-4.472859613653214494e-01 1.976034037430640933e-01 -5.633035768556691192e-01 -6.970898899567772311e-01 -4.580849098940594999e+00 -6.212618784070867983e-01 -8.416373372463200608e-01 -7.856475603724587253e-02 -1.669654906909998626e+00 1.714316324688243132e+00
7.035472265014292015e-02 -1.563830845839943029e+00 -4.487361501975977163e-01 5.145955842127295510e-01 1.579344542967236364e+00 2.908693482088461124e+00 -1.308825629425489190e+00 -2.339070813959482464e+00 -4.635560663103412082e+00 -1.225192253305676271e+00
